digraph Tree {
node [shape=box] ;
0 [label="Position level <= 8.5\nmse = 80662250000.0\nsamples = 10\nvalue = 249500.0"] ;
1 [label="Position level <= 6.5\nmse = 6921484375.0\nsamples = 8\nvalue = 124375.0"] ;
0 -> 1 [labeldistance=2.5, labelangle=45, headlabel="True"] ;
2 [label="Position level <= 4.5\nmse = 1381250000.0\nsamples = 6\nvalue = 82500.0"] ;
1 -> 2 ;
3 [label="Position level <= 3.5\nmse = 179687500.0\nsamples = 4\nvalue = 58750.0"] ;
2 -> 3 ;
4 [label="Position level <= 2.5\nmse = 38888888.889\nsamples = 3\nvalue = 51666.667"] ;
3 -> 4 ;
5 [label="Position level <= 1.5\nmse = 6250000.0\nsamples = 2\nvalue = 47500.0"] ;
4 -> 5 ;
6 [label="mse = 0.0\nsamples = 1\nvalue = 45000.0"] ;
5 -> 6 ;
7 [label="mse = 0.0\nsamples = 1\nvalue = 50000.0"] ;
5 -> 7 ;
8 [label="mse = 0.0\nsamples = 1\nvalue = 60000.0"] ;
4 -> 8 ;
9 [label="mse = 0.0\nsamples = 1\nvalue = 80000.0"] ;
3 -> 9 ;
10 [label="Position level <= 5.5\nmse = 400000000.0\nsamples = 2\nvalue = 130000.0"] ;
2 -> 10 ;
11 [label="mse = 0.0\nsamples = 1\nvalue = 110000.0"] ;
10 -> 11 ;
12 [label="mse = 0.0\nsamples = 1\nvalue = 150000.0"] ;
10 -> 12 ;
13 [label="Position level <= 7.5\nmse = 2500000000.0\nsamples = 2\nvalue = 250000.0"] ;
1 -> 13 ;
14 [label="mse = 0.0\nsamples = 1\nvalue = 200000.0"] ;
13 -> 14 ;
15 [label="mse = 0.0\nsamples = 1\nvalue = 300000.0"] ;
13 -> 15 ;
16 [label="Position level <= 9.5\nmse = 62500000000.0\nsamples = 2\nvalue = 750000.0"] ;
0 -> 16 [labeldistance=2.5, labelangle=-45, headlabel="False"] ;
17 [label="mse = 0.0\nsamples = 1\nvalue = 500000.0"] ;
16 -> 17 ;
18 [label="mse = 0.0\nsamples = 1\nvalue = 1000000.0"] ;
16 -> 18 ;
}